<?xml version="1.0"?>
<opencv_storage>
<cascade>
  <stageType>BOOST</stageType>
  <featureType>LBP</featureType>
  <height>50</height>
  <width>50</width>
  <stageParams>
    <boostType>GAB</boostType>
    <minHitRate>9.9500000476837158e-01</minHitRate>
    <maxFalseAlarm>5.0000000000000000e-01</maxFalseAlarm>
    <weightTrimRate>9.4999999999999996e-01</weightTrimRate>
    <maxDepth>1</maxDepth>
    <maxWeakCount>100</maxWeakCount></stageParams>
  <featureParams>
    <maxCatCount>256</maxCatCount>
    <featSize>1</featSize></featureParams>
  <stageNum>25</stageNum>
  <stages>
    <!-- stage 0 -->
    <_>
      <maxWeakCount>3</maxWeakCount>
      <stageThreshold>-7.8390222787857056e-01</stageThreshold>
      <weakClassifiers>
        <_>
          <internalNodes>
            0 -1 77 -184495912 -779091952 276873297 1494814721 134258826
            -2004877312 8421578 453509272</internalNodes>
          <leafValues>
            -9.1304349899291992e-01 8.5714286565780640e-01</leafValues></_>
        <_>
          <internalNodes>
            0 -1 76 1526978776 1572853753 2029952576 1568666976
            1568640220 1602183005 1979289738 1607945931</internalNodes>
          <leafValues>
            -7.1480745077133179e-01 8.5896575450897217e-01</leafValues></_>
        <_>
          <internalNodes>
            0 -1 80 -608641800 -7381912 -150996493 -606348035 -5581112
            -825565624 -675874869 -611607075</internalNodes>
          <leafValues>
            -7.1903079748153687e-01 8.4394866228103638e-01</leafValues></_></weakClassifiers></_>
    <!-- stage 1 -->
    <_>
      <maxWeakCount>3</maxWeakCount>
      <stageThreshold>-1.0143895149230957e+00</stageThreshold>
      <weakClassifiers>
        <_>
          <internalNodes>
            0 -1 120 287839480 -1078127619 -382209665 2010865657
            -1617232929 -1448228510 -1309749249 -1123651</internalNodes>
          <leafValues>
            -8.7290167808532715e-01 7.5198185443878174e-01</leafValues></_>
        <_>
          <internalNodes>
            0 -1 59 -687286024 -83263488 9965588 856266752 -2004836166
            -1459074934 -928986977 -74727270</internalNodes>
          <leafValues>
            -7.3169332742691040e-01 7.5625497102737427e-01</leafValues></_>
        <_>
          <internalNodes>
            0 -1 115 488133880 -15993451 -3678497 -68602731 -1783230241
            -5518913 -88166657 -4690499</internalNodes>
          <leafValues>
            -8.4922862052917480e-01 5.9020549058914185e-01</leafValues></_></weakClassifiers></_>
    <!-- stage 2 -->
    <_>
      <maxWeakCount>4</maxWeakCount>
      <stageThreshold>-1.1914757490158081e+00</stageThreshold>
      <weakClassifiers>
        <_>
          <internalNodes>
            0 -1 113 899175608 -681615983 -1835612073 -4725631
            -1814373125 -505449829 851892735 -197635</internalNodes>
          <leafValues>
            -7.8973716497421265e-01 6.8350917100906372e-01</leafValues></_>
        <_>
          <internalNodes>
            0 -1 122 -1 -557209 2113929205 -8421507 -1073942818 -1
            -1078018053 -4661767</internalNodes>
          <leafValues>
            -5.9512710571289062e-01 7.7634918689727783e-01</leafValues></_>
        <_>
          <internalNodes>
            0 -1 102 361911515 -619713592 -759040365 1383683069
            -1075147250 -1353743473 -1795033673 -542480931</internalNodes>
          <leafValues>
            -6.0217356681823730e-01 6.2015146017074585e-01</leafValues></_>
        <_>
          <internalNodes>
            0 -1 44 -585510677 520327810 1360872088 -610708518
            -1064615222 1296664781 -1003831048 -8533046</internalNodes>
          <leafValues>
            -5.7591414451599121e-01 6.4607584476470947e-01</leafValues></_></weakClassifiers></_>
    <!-- stage 3 -->
    <_>
      <maxWeakCount>4</maxWeakCount>
      <stageThreshold>-1.2072677612304688e+00</stageThreshold>
      <weakClassifiers>
        <_>
          <internalNodes>
            0 -1 82 -3351816 -549204960 -805070605 1381843981 -812853526
            -123600760 -1810177893 -617983779</internalNodes>
          <leafValues>
            -7.3435503244400024e-01 6.4667034149169922e-01</leafValues></_>
        <_>
          <internalNodes>
            0 -1 22 -117261590 -1123696512 5263931 1628647571
            -1382367009 -644177895 308453535 1528034443</internalNodes>
          <leafValues>
            -6.5231525897979736e-01 5.2842396497726440e-01</leafValues></_>
        <_>
          <internalNodes>
            0 -1 101 -1153737473 1829450432 1620283533 -230227919
            -1450549682 -879083513 -1669160753 -820316724</internalNodes>
          <leafValues>
            -6.2714862823486328e-01 5.3052693605422974e-01</leafValues></_>
        <_>
          <internalNodes>
            0 -1 34 -654189601 1393000647 -1878658856 1378070546
            172147342 1526857898 1786839130 1803809182</internalNodes>
          <leafValues>
            -5.7447427511215210e-01 5.9842169284820557e-01</leafValues></_></weakClassifiers></_>
    <!-- stage 4 -->
    <_>
      <maxWeakCount>5</maxWeakCount>
      <stageThreshold>-7.7289122343063354e-01</stageThreshold>
      <weakClassifiers>
        <_>
          <internalNodes>
            0 -1 72 463099096 -745548288 -1073735201 1888976919
            -804108150 -209027064 -435972393 -867984253</internalNodes>
          <leafValues>
            -6.7362922430038452e-01 6.0850602388381958e-01</leafValues></_>
        <_>
          <internalNodes>
            0 -1 111 1065934072 -107101287 -482098603 -78036903
            -2013075746 -100425599 -1969320821 -274048004</internalNodes>
          <leafValues>
            -7.6150614023208618e-01 4.2527529597282410e-01</leafValues></_>
        <_>
          <internalNodes>
            0 -1 27 1392631033 1594589327 269679258 1459743226
            1481051278 1536182817 -1452029750 -83115270</internalNodes>
          <leafValues>
            -5.8792543411254883e-01 5.5846488475799561e-01</leafValues></_>
        <_>
          <internalNodes>
            0 -1 4 1447396010 1392738450 67 1560756242 25757915
            -1878900736 1208123593 1397085138</internalNodes>
          <leafValues>
            -5.4325473308563232e-01 5.7147616147994995e-01</leafValues></_>
        <_>
          <internalNodes>
            0 -1 86 -38151973 -3417012 -16785678 -774120211 -4524214
            -7669047 -693436437 -808476705</internalNodes>
          <leafValues>
            -4.8030224442481995e-01 6.4703398942947388e-01</leafValues></_></weakClassifiers></_>
    <!-- stage 5 -->
    <_>
      <maxWeakCount>4</maxWeakCount>
      <stageThreshold>-3.4792244434356689e-01</stageThreshold>
      <weakClassifiers>
        <_>
          <internalNodes>
            0 -1 117 -8650753 2146387952 -20971521 -1081347 -1115689345
            -570425601 -1073742977 -21438979</internalNodes>
          <leafValues>
            -4.3228200078010559e-01 7.0039421319961548e-01</leafValues></_>
        <_>
          <internalNodes>
            0 -1 93 -1146070824 -452967936 -799976227 1971271989
            -1364534262 -922124150 119980931 224350635</internalNodes>
          <leafValues>
            -8.0681443214416504e-01 4.1487365961074829e-01</leafValues></_>
        <_>
          <internalNodes>
            0 -1 79 -78586632 -129826611 1169117981 -511713762
            -1171602194 -2000633842 -490149169 1866144983</internalNodes>
          <leafValues>
            -6.7477357387542725e-01 4.4529059529304504e-01</leafValues></_>
        <_>
          <internalNodes>
            0 -1 108 1897920394 319527172 -1047441022 1975853547
            -1064836979 285806600 1188016264 868739219</internalNodes>
          <leafValues>
            -6.6684639453887939e-01 4.4588339328765869e-01</leafValues></_></weakClassifiers></_>
    <!-- stage 6 -->
    <_>
      <maxWeakCount>6</maxWeakCount>
      <stageThreshold>-1.3046679496765137e+00</stageThreshold>
      <weakClassifiers>
        <_>
          <internalNodes>
            0 -1 103 690091000 2147450877 -1073872905 -131 1073594367 -1
            -1174634499 -4653060</internalNodes>
          <leafValues>
            -5.6431055068969727e-01 6.2579160928726196e-01</leafValues></_>
        <_>
          <internalNodes>
            0 -1 75 1499454040 1599575021 -2126266096 -136609312
            1419448475 1531523077 344541434 536307363</internalNodes>
          <leafValues>
            -6.8096297979354858e-01 4.2630937695503235e-01</leafValues></_>
        <_>
          <internalNodes>
            0 -1 125 823743706 -743227240 -1073247345 2078787997
            -1987662913 -1454790271 -1184170341 -72427027</internalNodes>
          <leafValues>
            -6.3795471191406250e-01 4.2638048529624939e-01</leafValues></_>
        <_>
          <internalNodes>
            0 -1 2 -584593682 -8441860 788328446 -22347779 -1092677636
            -131075 1878970303 1862004671</internalNodes>
          <leafValues>
            -4.1038209199905396e-01 6.9911074638366699e-01</leafValues></_>
        <_>
          <internalNodes>
            0 -1 21 1170522782 997642250 1081910 9671682 1263237919
            991668737 841124511 1342433922</internalNodes>
          <leafValues>
            -7.1691423654556274e-01 3.7930142879486084e-01</leafValues></_>
        <_>
          <internalNodes>
            0 -1 109 -1784029953 -1383899700 -2144217637 -10919841
            -2146817014 -1505001086 -1559567365 -536966040</internalNodes>
          <leafValues>
            -5.4858070611953735e-01 4.7771590948104858e-01</leafValues></_></weakClassifiers></_>
    <!-- stage 7 -->
    <_>
      <maxWeakCount>6</maxWeakCount>
      <stageThreshold>-6.0282951593399048e-01</stageThreshold>
      <weakClassifiers>
        <_>
          <internalNodes>
            0 -1 97 -744829186 -620674536 67207921 1504382729
            -1353803122 -1473380126 297857975 1244322273</internalNodes>
          <leafValues>
            -6.7371600866317749e-01 5.3973168134689331e-01</leafValues></_>
        <_>
          <internalNodes>
            0 -1 42 1595661727 420709151 25415966 924569936 1344753903
            457900223 187160806 2108410875</internalNodes>
          <leafValues>
            -5.2931815385818481e-01 5.2135807275772095e-01</leafValues></_>
        <_>
          <internalNodes>
            0 -1 20 -760548102 118019104 -669429604 303663820
            -1008017409 -81559141 -2000575758 1126388362</internalNodes>
          <leafValues>
            -7.1024036407470703e-01 3.8030096888542175e-01</leafValues></_>
        <_>
          <internalNodes>
            0 -1 116 -742713286 -245423416 67129491 -92470087
            -2013026226 1762107914 25342711 520798893</internalNodes>
          <leafValues>
            -7.1115398406982422e-01 3.5590389370918274e-01</leafValues></_>
        <_>
          <internalNodes>
            0 -1 92 1260380122 2076148395 2063811024 2108260504
            1495798714 1871317659 1644325130 1907069430</internalNodes>
          <leafValues>
            -6.1973118782043457e-01 4.1065242886543274e-01</leafValues></_>
        <_>
          <internalNodes>
            0 -1 56 -68163569 1416714866 -29410003 -210280609 -732144308
            230571837 1600814399 1378450783</internalNodes>
          <leafValues>
            -4.7271344065666199e-01 5.6027036905288696e-01</leafValues></_></weakClassifiers></_>
    <!-- stage 8 -->
    <_>
      <maxWeakCount>6</maxWeakCount>
      <stageThreshold>-6.4403378963470459e-01</stageThreshold>
      <weakClassifiers>
        <_>
          <internalNodes>
            0 -1 94 960126202 -955825784 -1068526383 -118120383
            -1467462066 -1962303406 -1696145173 1598745517</internalNodes>
          <leafValues>
            -7.5265020132064819e-01 5.0442475080490112e-01</leafValues></_>
        <_>
          <internalNodes>
            0 -1 106 -1048705 -171966469 -269484173 -227018513
            -1207965538 -1207995521 1576990711 -67453447</internalNodes>
          <leafValues>
            -4.4440624117851257e-01 6.0609197616577148e-01</leafValues></_>
        <_>
          <internalNodes>
            0 -1 67 -1718595331 -1018965560 155271675 -669335200
            -1846345652 -1278625664 -650391145 -322898408</internalNodes>
          <leafValues>
            -5.4525023698806763e-01 5.0554352998733521e-01</leafValues></_>
        <_>
          <internalNodes>
            0 -1 33 1494339836 940876245 -1056878054 1895995608
            1481068783 2021894554 -527973158 2116798506</internalNodes>
          <leafValues>
            -6.8893456459045410e-01 4.0478885173797607e-01</leafValues></_>
        <_>
          <internalNodes>
            0 -1 91 -1957019144 -510717304 -1810431791 -222358939
            437167023 -1727463411 894603991 1060785409</internalNodes>
          <leafValues>
            -8.1257444620132446e-01 2.8115588426589966e-01</leafValues></_>
        <_>
          <internalNodes>
            0 -1 14 1985727530 2080493642 1074397186 -1102800473
            -1043822145 1913137288 567094139 1935661131</internalNodes>
          <leafValues>
            -6.0262638330459595e-01 4.5526471734046936e-01</leafValues></_></weakClassifiers></_>
    <!-- stage 9 -->
    <_>
      <maxWeakCount>7</maxWeakCount>
      <stageThreshold>-8.5144877433776855e-01</stageThreshold>
      <weakClassifiers>
        <_>
          <internalNodes>
            0 -1 96 931681530 -2063240248 1353080563 1481625689
            -208632630 -1023391741 -394223209 -541962583</internalNodes>
          <leafValues>
            -6.5656566619873047e-01 4.9351945519447327e-01</leafValues></_>
        <_>
          <internalNodes>
            0 -1 5 -50884890 -419500034 771288830 -928059393 -151826441
            2147385341 1610444478 1439158247</internalNodes>
          <leafValues>
            -4.7845160961151123e-01 5.2636182308197021e-01</leafValues></_>
        <_>
          <internalNodes>
            0 -1 123 -268442753 1467875199 -4178 -805339267 -536875273
            2113798015 -134351425 -67447555</internalNodes>
          <leafValues>
            -4.0886044502258301e-01 5.6344157457351685e-01</leafValues></_>
        <_>
          <internalNodes>
            0 -1 158 -472390750 2100815331 -643755712 -4984005
            1384529987 -1495215867 -829013643 1359079119</internalNodes>
          <leafValues>
            -4.8928681015968323e-01 4.8414853215217590e-01</leafValues></_>
        <_>
          <internalNodes>
            0 -1 78 -680520513 -539405469 268488861 1658721020
            -1736011653 -494911192 -627010630 1784677083</internalNodes>
          <leafValues>
            -5.8105486631393433e-01 4.0700778365135193e-01</leafValues></_>
        <_>
          <internalNodes>
            0 -1 131 -783289944 555059595 -2088119035 -1282028897
            -504849227 -662617684 -528465532 48718820</internalNodes>
          <leafValues>
            -5.7637465000152588e-01 4.3123358488082886e-01</leafValues></_>
        <_>
          <internalNodes>
            0 -1 110 -1325086465 -1541584855 -1560173599 278635397
            785431630 1796376581 102934279 195726465</internalNodes>
          <leafValues>
            -6.5216869115829468e-01 3.7764722108840942e-01</leafValues></_></weakClassifiers></_>
    <!-- stage 10 -->
    <_>
      <maxWeakCount>6</maxWeakCount>
      <stageThreshold>-1.1681292057037354e+00</stageThreshold>
      <weakClassifiers>
        <_>
          <internalNodes>
            0 -1 46 -575167880 -100737031 -1074049423 -9246989
            -272697602 -33759233 -117457671 -551974669</internalNodes>
          <leafValues>
            -3.8214644789695740e-01 6.1197751760482788e-01</leafValues></_>
        <_>
          <internalNodes>
            0 -1 120 957357548 -897112739 -1069344573 2110067081
            -1580669701 -769621983 -1174214002 -274011699</internalNodes>
          <leafValues>
            -8.1437885761260986e-01 3.2583305239677429e-01</leafValues></_>
        <_>
          <internalNodes>
            0 -1 12 1198364090 1023488025 1090524252 -577715902
            1521028747 1928048539 -85000010 -5252306</internalNodes>
          <leafValues>
            -5.1341986656188965e-01 4.8779913783073425e-01</leafValues></_>
        <_>
          <internalNodes>
            0 -1 148 -505423965 -1508781177 1116655745 -1428289569
            1393211899 131107 1120526660 1690304155</internalNodes>
          <leafValues>
            -5.1561945676803589e-01 4.2838490009307861e-01</leafValues></_>
        <_>
          <internalNodes>
            0 -1 55 -814234429 -911024117 -775654589 1611768715
            1896104080 1208043658 -668966585 1750596547</internalNodes>
          <leafValues>
            -4.4965016841888428e-01 5.0560873746871948e-01</leafValues></_>
        <_>
          <internalNodes>
            0 -1 84 -1793868421 -445922103 402888259 1918832657
            -1320637904 -1467547120 -510217317 1471813769</internalNodes>
          <leafValues>
            -6.3059598207473755e-01 3.6687365174293518e-01</leafValues></_></weakClassifiers></_>
    <!-- stage 11 -->
    <_>
      <maxWeakCount>7</maxWeakCount>
      <stageThreshold>-6.5716981887817383e-01</stageThreshold>
      <weakClassifiers>
        <_>
          <internalNodes>
            0 -1 98 -9441281 -545558849 1879015283 2062417775
            -1342196481 -1753219460 1744304103 -550576707</internalNodes>
          <leafValues>
            -2.9930797219276428e-01 6.5512466430664062e-01</leafValues></_>
        <_>
          <internalNodes>
            0 -1 38 -773849604 1025617926 -1322789490 1671614876
            1361790093 2058377457 -921714616 2141445006</internalNodes>
          <leafValues>
            -6.0874670743942261e-01 4.0677425265312195e-01</leafValues></_>
        <_>
          <internalNodes>
            0 -1 43 -295714302 -684198025 -38121647 -49283079 -580201422
            -167805067 120739155 -205523345</internalNodes>
          <leafValues>
            -3.8382014632225037e-01 6.0968673229217529e-01</leafValues></_>
        <_>
          <internalNodes>
            0 -1 145 -339484021 -239370273 1740453632 -810168333
            -706788093 91611373 -553656411 1240955751</internalNodes>
          <leafValues>
            -4.0543258190155029e-01 5.4593098163604736e-01</leafValues></_>
        <_>
          <internalNodes>
            0 -1 89 -1248830214 1099846088 -666865377 1055867837
            -1341595070 -1056915456 315159271 324788439</internalNodes>
          <leafValues>
            -8.4098327159881592e-01 2.6844206452369690e-01</leafValues></_>
        <_>
          <internalNodes>
            0 -1 90 -105915141 -30417428 -17825793 -104079619 -360502
            -2368293 1058731487 -1626612387</internalNodes>
          <leafValues>
            -4.5819374918937683e-01 4.9665081501007080e-01</leafValues></_>
        <_>
          <internalNodes>
            0 -1 45 1429588172 1502704776 579307081 1933119838
            2052771231 1481670673 -1076854014 472062682</internalNodes>
          <leafValues>
            -5.8548355102539062e-01 3.7716886401176453e-01</leafValues></_></weakClassifiers></_>
    <!-- stage 12 -->
    <_>
      <maxWeakCount>7</maxWeakCount>
      <stageThreshold>-5.0253671407699585e-01</stageThreshold>
      <weakClassifiers>
        <_>
          <internalNodes>
            0 -1 100 1573190492 -50547392 -285380867 -33595660
            -537001985 -1124073482 754723766 -2245830</internalNodes>
          <leafValues>
            -3.7938144803047180e-01 5.9386503696441650e-01</leafValues></_>
        <_>
          <internalNodes>
            0 -1 66 -1154343425 1538084779 -17047555 -571941121
            -1090527269 -12591137 -13271721 -74955540</internalNodes>
          <leafValues>
            -4.3379631638526917e-01 4.6625843644142151e-01</leafValues></_>
        <_>
          <internalNodes>
            0 -1 9 -446700882 1970941911 2130604029 1742249439 916522915
            -554795155 1328400351 -581049465</internalNodes>
          <leafValues>
            -3.7410685420036316e-01 5.6556266546249390e-01</leafValues></_>
        <_>
          <internalNodes>
            0 -1 99 1774673407 -1320308025 17154199 1521179099
            -225065183 -834954615 814658471 -6633031</internalNodes>
          <leafValues>
            -4.5582723617553711e-01 4.8297217488288879e-01</leafValues></_>
        <_>
          <internalNodes>
            0 -1 16 -505442610 269681525 907184947 -1555738123
            -653622834 2047352970 -1064537713 1610025578</internalNodes>
          <leafValues>
            -4.9753326177597046e-01 4.4984456896781921e-01</leafValues></_>
        <_>
          <internalNodes>
            0 -1 166 436204019 -1477462214 2130600433 1072562148
            -1667254303 -1913227270 213718100 1775355871</internalNodes>
          <leafValues>
            -3.9115008711814880e-01 5.2246421575546265e-01</leafValues></_>
        <_>
          <internalNodes>
            0 -1 61 -887118296 907219929 -1852505016 -77470939
            -926759256 -922213477 -1054703256 1484759786</internalNodes>
          <leafValues>
            -7.2320997714996338e-01 2.8354477882385254e-01</leafValues></_></weakClassifiers></_>
    <!-- stage 13 -->
    <_>
      <maxWeakCount>7</maxWeakCount>
      <stageThreshold>-8.7977737188339233e-01</stageThreshold>
      <weakClassifiers>
        <_>
          <internalNodes>
            0 -1 121 1944884472 2065530897 17007235 -173161891
            -1550166378 -1860566773 1972430031 -1078141780</internalNodes>
          <leafValues>
            -5.8869701623916626e-01 4.9668875336647034e-01</leafValues></_>
        <_>
          <internalNodes>
            0 -1 50 2136318173 1352122383 -1060896681 923861248
            -1997753944 -391315189 -222117465 -537347334</internalNodes>
          <leafValues>
            -4.6339103579521179e-01 4.6457779407501221e-01</leafValues></_>
        <_>
          <internalNodes>
            0 -1 129 -1026690678 287297641 -738179583 -1324742489
            1355138300 701367633 -1062746083 1742590914</internalNodes>
          <leafValues>
            -5.1470196247100830e-01 3.8265037536621094e-01</leafValues></_>
        <_>
          <internalNodes>
            0 -1 68 932679656 -1505506007 -922133181 1162166608
            -1893808990 -612734005 19540626 486359441</internalNodes>
          <leafValues>
            -6.7878377437591553e-01 3.1563347578048706e-01</leafValues></_>
        <_>
          <internalNodes>
            0 -1 28 -462429686 103383618 1073760530 -160511199
            -799956047 1753662209 1375823119 -534911547</internalNodes>
          <leafValues>
            -5.0544559955596924e-01 3.8931480050086975e-01</leafValues></_>
        <_>
          <internalNodes>
            0 -1 151 -998248821 2043147971 -771656192 -172499406
            -1034686201 -1014840690 -1050279643 1205146211</internalNodes>
          <leafValues>
            -4.7890827059745789e-01 4.4281017780303955e-01</leafValues></_>
        <_>
          <internalNodes>
            0 -1 134 -782780647 421048502 -850853483 434675889 29599215
            636159146 -922640296 283114282</internalNodes>
          <leafValues>
            -4.6333774924278259e-01 4.3184986710548401e-01</leafValues></_></weakClassifiers></_>
    <!-- stage 14 -->
    <_>
      <maxWeakCount>8</maxWeakCount>
      <stageThreshold>-8.6341077089309692e-01</stageThreshold>
      <weakClassifiers>
        <_>
          <internalNodes>
            0 -1 125 1358956760 -786075640 50850053 1207113097
            -1832207637 -867654610 -68232725 -1147353412</internalNodes>
          <leafValues>
            -7.3273944854736328e-01 4.3189215660095215e-01</leafValues></_>
        <_>
          <internalNodes>
            0 -1 65 1528354299 -106209798 2113390583 -574619654
            -612771333 -541134849 -545268355 -12293</internalNodes>
          <leafValues>
            -3.7263754010200500e-01 5.7873237133026123e-01</leafValues></_>
        <_>
          <internalNodes>
            0 -1 11 -149164410 1793175461 -809703795 -1423663177
            1534411985 -35666019 1383163407 1766705038</internalNodes>
          <leafValues>
            -4.0329858660697937e-01 4.8789685964584351e-01</leafValues></_>
        <_>
          <internalNodes>
            0 -1 40 1528697434 453497761 570433168 -339007287 126059407
            -100106113 -616330609 1779686543</internalNodes>
          <leafValues>
            -5.0124090909957886e-01 3.9201623201370239e-01</leafValues></_>
        <_>
          <internalNodes>
            0 -1 165 -158337093 -1501565089 1861070341 -1879445713
            1056700375 1610612719 -1384221209 -134480130</internalNodes>
          <leafValues>
            -3.5701486468315125e-01 6.0093569755554199e-01</leafValues></_>
        <_>
          <internalNodes>
            0 -1 73 -1281731461 -2686883 -1945377633 1478197341
            822650911 -1197457116 135532955 253929633</internalNodes>
          <leafValues>
            -5.8061623573303223e-01 3.7190181016921997e-01</leafValues></_>
        <_>
          <internalNodes>
            0 -1 24 -925439826 139665809 873480589 1149259788 -791538863
            855703620 -380038871 1934616991</internalNodes>
          <leafValues>
            -5.0956672430038452e-01 4.0288773179054260e-01</leafValues></_>
        <_>
          <internalNodes>
            0 -1 52 -47190493 1911997951 -4274857 -549486729 -839335720
            -268961857 1446447383 -252316289</internalNodes>
          <leafValues>
            -3.5538068413734436e-01 5.9575426578521729e-01</leafValues></_></weakClassifiers></_>
    <!-- stage 15 -->
    <_>
      <maxWeakCount>9</maxWeakCount>
      <stageThreshold>-5.5645203590393066e-01</stageThreshold>
      <weakClassifiers>
        <_>
          <internalNodes>
            0 -1 3 -121657714 -304222801 -302002241 -1347440657
            -610418754 -20996705 2120613695 1833955079</internalNodes>
          <leafValues>
            -1.7857143282890320e-01 6.6878980398178101e-01</leafValues></_>
        <_>
          <internalNodes>
            0 -1 107 1380313535 -1843588861 151486739 -216166215
            1082903997 297844736 -1115518709 1060671917</internalNodes>
          <leafValues>
            -4.7975587844848633e-01 4.0949663519859314e-01</leafValues></_>
        <_>
          <internalNodes>
            0 -1 152 1204545442 -754872253 -645431031 -918092850
            -486158061 -930439149 1231079917 1383933175</internalNodes>
          <leafValues>
            -4.6549269556999207e-01 4.1950559616088867e-01</leafValues></_>
        <_>
          <internalNodes>
            0 -1 13 -1258679908 1918369276 562040967 -851111739
            433872859 -611655026 223156698 205273954</internalNodes>
          <leafValues>
            -6.3876515626907349e-01 2.7984306216239929e-01</leafValues></_>
        <_>
          <internalNodes>
            0 -1 154 -527390 -13378626 1593835517 1862238157 532180478
            1069300533 107409055 -402656273</internalNodes>
          <leafValues>
            -3.4831470251083374e-01 6.3598167896270752e-01</leafValues></_>
        <_>
          <internalNodes>
            0 -1 85 546035931 -318154360 454103111 1658577829 -132816483
            -920440824 29469327 386580941</internalNodes>
          <leafValues>
            -5.4249519109725952e-01 3.7651261687278748e-01</leafValues></_>
        <_>
          <internalNodes>
            0 -1 29 1964167910 1025025984 29982 -1599563776 1040200879
            907247713 2064159080 1058251401</internalNodes>
          <leafValues>
            -6.5374630689620972e-01 2.9469296336174011e-01</leafValues></_>
        <_>
          <internalNodes>
            0 -1 7 -436236566 -1074217218 -268521730 -1175392516
            2136682230 -4227076 938949885 -42480162</internalNodes>
          <leafValues>
            -3.7531927227973938e-01 5.6605887413024902e-01</leafValues></_>
        <_>
          <internalNodes>
            0 -1 139 729544609 930918189 -33605211 167706047 -143775264
            318668720 951471241 -781456261</internalNodes>
          <leafValues>
            -4.2344409227371216e-01 4.7038698196411133e-01</leafValues></_></weakClassifiers></_>
    <!-- stage 16 -->
    <_>
      <maxWeakCount>9</maxWeakCount>
      <stageThreshold>-5.8589899539947510e-01</stageThreshold>
      <weakClassifiers>
        <_>
          <internalNodes>
            0 -1 70 1529532810 497745627 402611967 1878876126 2146787323
            2147377143 1438504140 1874820890</internalNodes>
          <leafValues>
            -4.1860464215278625e-01 5.0602412223815918e-01</leafValues></_>
        <_>
          <internalNodes>
            0 -1 112 -700251265 1676132995 1487487121 1913380891
            31023771 -1970830590 229344151 -13050451</internalNodes>
          <leafValues>
            -5.2424788475036621e-01 3.6173838376998901e-01</leafValues></_>
        <_>
          <internalNodes>
            0 -1 37 -94673329 -210472939 -1239391381 286278341
            1128809896 234946791 -934911777 2056971467</internalNodes>
          <leafValues>
            -4.6123367547988892e-01 4.0691363811492920e-01</leafValues></_>
        <_>
          <internalNodes>
            0 -1 160 -781734238 -710475841 -1627451928 -940183749
            1946129483 -1514707646 1404657151 1213689638</internalNodes>
          <leafValues>
            -4.1639715433120728e-01 4.7037556767463684e-01</leafValues></_>
        <_>
          <internalNodes>
            0 -1 41 1296348381 -1269333867 -2088251321 847729347
            -262227254 -506798072 -918058097 -1160859446</internalNodes>
          <leafValues>
            -4.4972649216651917e-01 4.2017510533332825e-01</leafValues></_>
        <_>
          <internalNodes>
            0 -1 142 -370672853 -324407417 -172518031 1261021118
            -856272843 -1828882433 -570595937 -208666905</internalNodes>
          <leafValues>
            -3.6099582910537720e-01 5.5806457996368408e-01</leafValues></_>
        <_>
          <internalNodes>
            0 -1 128 -158342193 1214337033 1141158299 871052163
            1078561314 -233226088 -1566397765 -4580951</internalNodes>
          <leafValues>
            -4.2701530456542969e-01 4.6584665775299072e-01</leafValues></_>
        <_>
          <internalNodes>
            0 -1 126 -852880132 333938890 -889151469 1909932181
            -1689998899 -1333231214 209879318 1510656001</internalNodes>
          <leafValues>
            -5.9208238124847412e-01 3.6793735623359680e-01</leafValues></_>
        <_>
          <internalNodes>
            0 -1 130 290450226 927180082 -2054681147 1603383816
            1354906250 58851968 185993224 432388514</internalNodes>
          <leafValues>
            -4.7761592268943787e-01 4.3349352478981018e-01</leafValues></_></weakClassifiers></_>
    <!-- stage 17 -->
    <_>
      <maxWeakCount>8</maxWeakCount>
      <stageThreshold>-6.0195893049240112e-01</stageThreshold>
      <weakClassifiers>
        <_>
          <internalNodes>
            0 -1 119 -817582116 -52601228 251543549 -50397636 -573063681
            -1073741827 696137963 -538987560</internalNodes>
          <leafValues>
            -3.3480662107467651e-01 5.3274333477020264e-01</leafValues></_>
        <_>
          <internalNodes>
            0 -1 15 -148133206 1049358191 -9769105 -1627086917 -76159745
            1394597414 -1616650373 1566425047</internalNodes>
          <leafValues>
            -3.6372143030166626e-01 4.6390560269355774e-01</leafValues></_>
        <_>
          <internalNodes>
            0 -1 149 1735388581 1542123297 -4276447 -137560083
            -2097162821 -1305163791 -570487651 -604017174</internalNodes>
          <leafValues>
            -2.9001578688621521e-01 5.9201842546463013e-01</leafValues></_>
        <_>
          <internalNodes>
            0 -1 60 1494276511 -1304694241 537043539 -239438526
            1188955327 -1842863205 1093654782 -1283209730</internalNodes>
          <leafValues>
            -4.0777638554573059e-01 4.5274010300636292e-01</leafValues></_>
        <_>
          <internalNodes>
            0 -1 105 -1022281098 23046472 16880017 2026340677
            -1945102313 -838168367 -796790221 -25503571</internalNodes>
          <leafValues>
            -6.1031210422515869e-01 2.8379258513450623e-01</leafValues></_>
        <_>
          <internalNodes>
            0 -1 157 -532561910 -302586885 1735361024 1576771551
            1408691175 -9439241 -302055937 1335026071</internalNodes>
          <leafValues>
            -4.2276617884635925e-01 4.5109069347381592e-01</leafValues></_>
        <_>
          <internalNodes>
            0 -1 63 -996173353 1591673053 -2070785003 1983365459
            -1215868559 576782336 836747297 1942980499</internalNodes>
          <leafValues>
            -4.2683231830596924e-01 4.6018889546394348e-01</leafValues></_>
        <_>
          <internalNodes>
            0 -1 36 -37265 1181858297 -1090597123 837623469 1330006012
            -29475211 -276893825 -220209425</internalNodes>
          <leafValues>
            -3.0772843956947327e-01 6.2076497077941895e-01</leafValues></_></weakClassifiers></_>
    <!-- stage 18 -->
    <_>
      <maxWeakCount>9</maxWeakCount>
      <stageThreshold>-7.2338545322418213e-01</stageThreshold>
      <weakClassifiers>
        <_>
          <internalNodes>
            0 -1 87 1032936592 -316329620 -1274996029 681177248
            -1784493942 61939720 37126163 1334477597</internalNodes>
          <leafValues>
            -6.7410713434219360e-01 4.1914498805999756e-01</leafValues></_>
        <_>
          <internalNodes>
            0 -1 155 -538461134 434366854 1082278297 -2057907765 9144477
            1254738048 -120897099 1751718151</internalNodes>
          <leafValues>
            -4.6347489953041077e-01 3.9485737681388855e-01</leafValues></_>
        <_>
          <internalNodes>
            0 -1 6 -521933074 -17641476 536866811 518057983 -138445321
            -1025 -142612481 -557341630</internalNodes>
          <leafValues>
            -3.3650428056716919e-01 5.1679652929306030e-01</leafValues></_>
        <_>
          <internalNodes>
            0 -1 127 1528115359 -1820258228 -2147481599 1913749761
            -246918065 -915201247 310551479 -1078306339</internalNodes>
          <leafValues>
            -5.1827758550643921e-01 3.4436613321304321e-01</leafValues></_>
        <_>
          <internalNodes>
            0 -1 159 1137173923 12308566 -786073215 -1777598010
            -1328398077 -2011143921 -636522051 1474306766</internalNodes>
          <leafValues>
            -4.7636985778808594e-01 3.8786408305168152e-01</leafValues></_>
        <_>
          <internalNodes>
            0 -1 31 119659889 119173471 -1064624105 -577516262
            -567263092 -890723835 -1996300104 -545862606</internalNodes>
          <leafValues>
            -4.7359743714332581e-01 4.1437020897865295e-01</leafValues></_>
        <_>
          <internalNodes>
            0 -1 147 -1256738286 588816607 1343054328 1204146441
            159921312 407242248 680207128 1618371329</internalNodes>
          <leafValues>
            -6.3655859231948853e-01 3.1038480997085571e-01</leafValues></_>
        <_>
          <internalNodes>
            0 -1 163 1282408387 1323118383 -806450139 -373444889
            240692424 223279031 1230724605 -874373185</internalNodes>
          <leafValues>
            -4.0922921895980835e-01 4.7009018063545227e-01</leafValues></_>
        <_>
          <internalNodes>
            0 -1 48 2088828405 -1377542540 -269355272 -386335701
            2092179452 -1426145434 1751387588 -1898299502</internalNodes>
          <leafValues>
            -4.1947099566459656e-01 4.8114606738090515e-01</leafValues></_></weakClassifiers></_>
    <!-- stage 19 -->
    <_>
      <maxWeakCount>9</maxWeakCount>
      <stageThreshold>-1.0801428556442261e+00</stageThreshold>
      <weakClassifiers>
        <_>
          <internalNodes>
            0 -1 1 1592766126 2130448382 1061089278 -286347281
            -151548161 2113896319 -20513 1467337958</internalNodes>
          <leafValues>
            -2.7824267745018005e-01 5.2676397562026978e-01</leafValues></_>
        <_>
          <internalNodes>
            0 -1 118 1459741599 -587034027 201327007 1406087245
            -2138859578 -2147449718 570648075 -340488</internalNodes>
          <leafValues>
            -4.4387191534042358e-01 4.1903173923492432e-01</leafValues></_>
        <_>
          <internalNodes>
            0 -1 162 -176707821 686538621 -1344274649 -68403225
            -1695054849 134111223 33029557 2147471613</internalNodes>
          <leafValues>
            -3.8225752115249634e-01 4.4898194074630737e-01</leafValues></_>
        <_>
          <internalNodes>
            0 -1 146 -944379093 -176034437 1604540833 -708841617
            -553680605 -1921849525 233918413 -858440573</internalNodes>
          <leafValues>
            -3.5758766531944275e-01 4.8455360531806946e-01</leafValues></_>
        <_>
          <internalNodes>
            0 -1 114 -1398792996 -748207904 -871349037 1633362193
            -1966570674 134250496 303714 2136646317</internalNodes>
          <leafValues>
            -7.5196331739425659e-01 2.1073590219020844e-01</leafValues></_>
        <_>
          <internalNodes>
            0 -1 140 -1274969318 1455669319 106701 1615192970 12929167
            10514584 -1978921361 1115972560</internalNodes>
          <leafValues>
            -5.1909226179122925e-01 3.3539891242980957e-01</leafValues></_>
        <_>
          <internalNodes>
            0 -1 164 -806370645 1471020782 -1308792327 2113781677
            -2045988438 -821774802 1398645103 -271069185</internalNodes>
          <leafValues>
            -2.6549777388572693e-01 7.2829592227935791e-01</leafValues></_>
        <_>
          <internalNodes>
            0 -1 58 1800764671 -1384923154 2146369530 1039281712
            1599881200 2004697078 2147450879 -203428913</internalNodes>
          <leafValues>
            -3.0086353421211243e-01 6.0765725374221802e-01</leafValues></_>
        <_>
          <internalNodes>
            0 -1 132 601043796 541167903 -2063527661 -737246808
            279030680 -1666951157 2030790812 486527834</internalNodes>
          <leafValues>
            -5.0647735595703125e-01 3.6347648501396179e-01</leafValues></_></weakClassifiers></_>
    <!-- stage 20 -->
    <_>
      <maxWeakCount>10</maxWeakCount>
      <stageThreshold>-6.8464666604995728e-01</stageThreshold>
      <weakClassifiers>
        <_>
          <internalNodes>
            0 -1 32 1465764600 1572597231 -1216513 522260340 1603074812
            -1895829507 2130608125 2063581182</internalNodes>
          <leafValues>
            -2.4643197655677795e-01 5.5455130338668823e-01</leafValues></_>
        <_>
          <internalNodes>
            0 -1 168 -152716493 -1267289801 -32837 329805487 -710947407
            348011839 -1209288803 -78790769</internalNodes>
          <leafValues>
            -2.6265525817871094e-01 5.8757406473159790e-01</leafValues></_>
        <_>
          <internalNodes>
            0 -1 124 -124277769 675922185 96698393 -917700525 1916950787
            -1056865655 -1284888405 2140850653</internalNodes>
          <leafValues>
            -4.3909996747970581e-01 3.7136617302894592e-01</leafValues></_>
        <_>
          <internalNodes>
            0 -1 49 -527711744 -1753092085 268457237 -1651555195
            143381452 -735936503 1502101641 2014573983</internalNodes>
          <leafValues>
            -3.9195841550827026e-01 3.9933782815933228e-01</leafValues></_>
        <_>
          <internalNodes>
            0 -1 64 531649776 355361770 1208034643 -1857942992
            1770685132 -1305239453 136394842 -1414870834</internalNodes>
          <leafValues>
            -6.7438834905624390e-01 2.2392636537551880e-01</leafValues></_>
        <_>
          <internalNodes>
            0 -1 141 1179509707 -134725675 -135361877 2141290217
            1449366978 -179013817 -1082335797 -36605888</internalNodes>
          <leafValues>
            -3.5998836159706116e-01 4.8907285928726196e-01</leafValues></_>
        <_>
          <internalNodes>
            0 -1 161 1543485578 -1610617967 1475306737 40922790
            -1787076222 -1879777335 -2017486753 -758186337</internalNodes>
          <leafValues>
            -3.5030856728553772e-01 5.0235432386398315e-01</leafValues></_>
        <_>
          <internalNodes>
            0 -1 153 -1172597966 814895254 67524632 -515600380 622615
            134463633 1745373949 2018507575</internalNodes>
          <leafValues>
            -4.0655973553657532e-01 4.5113277435302734e-01</leafValues></_>
        <_>
          <internalNodes>
            0 -1 35 2125425767 -1590620613 -111489 -1545179281
            -218325572 741609453 1958666110 -401086889</internalNodes>
          <leafValues>
            -3.7763029336929321e-01 5.0270920991897583e-01</leafValues></_>
        <_>
          <internalNodes>
            0 -1 156 -1019634526 431423570 1073889369 4645571 -517914467
            -736624637 -938652679 23104006</internalNodes>
          <leafValues>
            -5.1380127668380737e-01 3.7440219521522522e-01</leafValues></_></weakClassifiers></_>
    <!-- stage 21 -->
    <_>
      <maxWeakCount>9</maxWeakCount>
      <stageThreshold>-6.3630986213684082e-01</stageThreshold>
      <weakClassifiers>
        <_>
          <internalNodes>
            0 -1 95 -203632386 1121257616 -119832381 282006729
            -1404814774 681607208 328217267 -2016786291</internalNodes>
          <leafValues>
            -5.3027522563934326e-01 4.3260341882705688e-01</leafValues></_>
        <_>
          <internalNodes>
            0 -1 18 -50336094 -1166790897 -18153729 1021360045
            -537270879 -1401209036 1878280175 -98726033</internalNodes>
          <leafValues>
            -3.5367402434349060e-01 4.7460615634918213e-01</leafValues></_>
        <_>
          <internalNodes>
            0 -1 54 1565905661 1883582731 -2063527915 -1790246792
            -2088320357 -1240792301 -1429149173 -2097889586</internalNodes>
          <leafValues>
            -4.1336846351623535e-01 3.9992848038673401e-01</leafValues></_>
        <_>
          <internalNodes>
            0 -1 81 -1553214692 -1022688795 27269424 -1894773958
            27428587 1268781728 -1288961745 1385072822</internalNodes>
          <leafValues>
            -5.2108860015869141e-01 3.3818978071212769e-01</leafValues></_>
        <_>
          <internalNodes>
            0 -1 83 -1122453806 -577788947 1426266379 1893172781
            -1879048165 -1744764415 436505479 -1078299923</internalNodes>
          <leafValues>
            -4.9473094940185547e-01 3.2985004782676697e-01</leafValues></_>
        <_>
          <internalNodes>
            0 -1 150 1104922402 1920066595 -1073746186 -1040425113
            -13523917 -1745453057 -838873123 -205152573</internalNodes>
          <leafValues>
            -3.9015373587608337e-01 4.5956391096115112e-01</leafValues></_>
        <_>
          <internalNodes>
            0 -1 8 33940119 -359660095 -795748078 1294221359 1619218910
            -1476157408 1141116978 1095364788</internalNodes>
          <leafValues>
            -5.0642895698547363e-01 3.7941473722457886e-01</leafValues></_>
        <_>
          <internalNodes>
            0 -1 25 1279581174 1332235539 -17924105 492061159 1313480446
            -596166916 -8913027 -25208434</internalNodes>
          <leafValues>
            -4.1173478960990906e-01 4.2456024885177612e-01</leafValues></_>
        <_>
          <internalNodes>
            0 -1 51 -987004909 1743615755 -134555881 1970962295
            -184839285 -17827971 1203606391 -516294691</internalNodes>
          <leafValues>
            -3.3073088526725769e-01 5.5447441339492798e-01</leafValues></_></weakClassifiers></_>
    <!-- stage 22 -->
    <_>
      <maxWeakCount>8</maxWeakCount>
      <stageThreshold>-1.1131607294082642e+00</stageThreshold>
      <weakClassifiers>
        <_>
          <internalNodes>
            0 -1 111 924882140 1909731469 1833337313 -103948276
            -1282788726 -918446073 290599307 -4697716</internalNodes>
          <leafValues>
            -7.4074071645736694e-01 3.9603960514068604e-01</leafValues></_>
        <_>
          <internalNodes>
            0 -1 169 -33557581 -805366182 -139103755 -146806213
            2142018029 355990270 536272245 -71500113</internalNodes>
          <leafValues>
            -2.5767394900321960e-01 6.3262063264846802e-01</leafValues></_>
        <_>
          <internalNodes>
            0 -1 19 1902627530 556867923 1342501241 -2062941878
            -394219413 1749827713 -756502485 1858355903</internalNodes>
          <leafValues>
            -4.5112472772598267e-01 3.6957344412803650e-01</leafValues></_>
        <_>
          <internalNodes>
            0 -1 30 1145953183 -1071840382 -1744830435 1075757307
            1124313826 0 56849211 1366159515</internalNodes>
          <leafValues>
            -4.2385423183441162e-01 3.7590458989143372e-01</leafValues></_>
        <_>
          <internalNodes>
            0 -1 71 1496679604 1740980309 1301364944 -842188196
            151061416 985546882 1622708362 660819530</internalNodes>
          <leafValues>
            -6.3012665510177612e-01 2.4131946265697479e-01</leafValues></_>
        <_>
          <internalNodes>
            0 -1 69 330302963 -482348730 1085523537 9110839 210127233
            1692844034 140335469 -1696033300</internalNodes>
          <leafValues>
            -5.2402567863464355e-01 3.2456365227699280e-01</leafValues></_>
        <_>
          <internalNodes>
            0 -1 88 -654093097 -180026809 -805035809 1359487855
            -987974070 -1409187830 -85953589 1681148135</internalNodes>
          <leafValues>
            -4.5151713490486145e-01 3.8003003597259521e-01</leafValues></_>
        <_>
          <internalNodes>
            0 -1 136 1833277096 -1717909106 1182810517 -1857226041
            806496411 538051211 -1061064531 1499455857</internalNodes>
          <leafValues>
            -5.0382322072982788e-01 3.5767585039138794e-01</leafValues></_></weakClassifiers></_>
    <!-- stage 23 -->
    <_>
      <maxWeakCount>11</maxWeakCount>
      <stageThreshold>-5.9955602884292603e-01</stageThreshold>
      <weakClassifiers>
        <_>
          <internalNodes>
            0 -1 17 -1323158152 -2009902952 1322013408 -1456528886
            -1329961202 -569802614 -1562247134 705454723</internalNodes>
          <leafValues>
            -5.4048961400985718e-01 4.2870950698852539e-01</leafValues></_>
        <_>
          <internalNodes>
            0 -1 167 1197730609 -1213235905 -20971591 -440930510
            1996332188 401661815 -613065283 -130434149</internalNodes>
          <leafValues>
            -3.0986037850379944e-01 4.9775415658950806e-01</leafValues></_>
        <_>
          <internalNodes>
            0 -1 170 2026894335 -213801583 -1023342269 121395403
            1531412869 1235910849 -1862209435 1843784503</internalNodes>
          <leafValues>
            -3.8035464286804199e-01 4.0463361144065857e-01</leafValues></_>
        <_>
          <internalNodes>
            0 -1 62 -538614177 2000255743 704561003 1920434111
            -581107850 2004350839 -1015283857 -205849653</internalNodes>
          <leafValues>
            -3.1633418798446655e-01 4.9244916439056396e-01</leafValues></_>
        <_>
          <internalNodes>
            0 -1 143 328316562 -1825504952 295312 111543017 -1605947239
            725614592 990122176 215889956</internalNodes>
          <leafValues>
            -6.2083250284194946e-01 2.6234537363052368e-01</leafValues></_>
        <_>
          <internalNodes>
            0 -1 53 -119020758 1025572719 1878924733 1140064191
            -820998728 470835065 874992992 -84279370</internalNodes>
          <leafValues>
            -3.5162311792373657e-01 4.8403304815292358e-01</leafValues></_>
        <_>
          <internalNodes>
            0 -1 10 237569582 -1995095393 51529075 1095398683 -218242605
            813902217 1313460631 1477253892</internalNodes>
          <leafValues>
            -5.6798779964447021e-01 2.7911460399627686e-01</leafValues></_>
        <_>
          <internalNodes>
            0 -1 144 -998790493 1075376435 767552193 -1415487765
            1383725042 1323300863 -716320865 -620194565</internalNodes>
          <leafValues>
            -3.4862408041954041e-01 4.8987075686454773e-01</leafValues></_>
        <_>
          <internalNodes>
            0 -1 137 1434976149 320781982 2146949521 -321405059
            -272716378 -1477528134 -1134607043 -2080918038</internalNodes>
          <leafValues>
            -3.4499335289001465e-01 5.2205944061279297e-01</leafValues></_>
        <_>
          <internalNodes>
            0 -1 74 1017707799 1678977024 -922404598 1886880560
            822780427 1916469442 511874082 1300396044</internalNodes>
          <leafValues>
            -6.4940267801284790e-01 2.6021134853363037e-01</leafValues></_>
        <_>
          <internalNodes>
            0 -1 39 -134742921 -1061458564 -1074081879 -1313966210
            -1209246267 75397109 -1497989857 -266600501</internalNodes>
          <leafValues>
            -3.2876169681549072e-01 5.3503239154815674e-01</leafValues></_></weakClassifiers></_>
    <!-- stage 24 -->
    <_>
      <maxWeakCount>9</maxWeakCount>
      <stageThreshold>-5.8901602029800415e-01</stageThreshold>
      <weakClassifiers>
        <_>
          <internalNodes>
            0 -1 104 22898335 134234649 -267638653 1562838081 822546455
            17924096 594977563 185096557</internalNodes>
          <leafValues>
            -5.5118107795715332e-01 4.2065009474754333e-01</leafValues></_>
        <_>
          <internalNodes>
            0 -1 138 1561634719 -537643280 -1350565931 -38334883
            -1078346245 -32771 450692281 -2230677</internalNodes>
          <leafValues>
            -3.1990897655487061e-01 4.8047497868537903e-01</leafValues></_>
        <_>
          <internalNodes>
            0 -1 57 1901423260 1946232888 109302053 2073913492
            1095121291 1099538586 -1712160373 582285454</internalNodes>
          <leafValues>
            -5.0829946994781494e-01 2.9927757382392883e-01</leafValues></_>
        <_>
          <internalNodes>
            0 -1 26 819980842 -191565835 -311927779 -1682276545
            892437683 -1235550243 1601033407 -586810717</internalNodes>
          <leafValues>
            -3.4966319799423218e-01 4.4064825773239136e-01</leafValues></_>
        <_>
          <internalNodes>
            0 -1 23 -134485297 1957605183 -1107656921 1058078652
            1341981950 -283697400 -1646657697 -1186464929</internalNodes>
          <leafValues>
            -2.8853246569633484e-01 5.4012686014175415e-01</leafValues></_>
        <_>
          <internalNodes>
            0 -1 0 4240345 -229854699 -1067196269 -1143254714 2016201119
            -2141093750 -1777500157 -1958467247</internalNodes>
          <leafValues>
            -4.5271173119544983e-01 3.9190307259559631e-01</leafValues></_>
        <_>
          <internalNodes>
            0 -1 135 1287816941 1942814980 -1073413937 -1117350393
            -960370227 1634730048 -657893233 1210412624</internalNodes>
          <leafValues>
            -4.5491656661033630e-01 3.5203078389167786e-01</leafValues></_>
        <_>
          <internalNodes>
            0 -1 133 1078769492 1044386904 34866407 1521492099
            -1073101892 -1925177213 806468188 620604554</internalNodes>
          <leafValues>
            -5.0112986564636230e-01 3.4471735358238220e-01</leafValues></_>
        <_>
          <internalNodes>
            0 -1 47 932377548 -2055167539 806720253 705671466 2047602607
            -2002222968 824970025 -1047662424</internalNodes>
          <leafValues>
            -4.0052327513694763e-01 4.2241898179054260e-01</leafValues></_></weakClassifiers></_></stages>
  <features>
    <_>
      <rect>
        0 1 3 6</rect></_>
    <_>
      <rect>
        0 1 4 16</rect></_>
    <_>
      <rect>
        0 2 4 16</rect></_>
    <_>
      <rect>
        0 3 4 10</rect></_>
    <_>
      <rect>
        0 3 4 14</rect></_>
    <_>
      <rect>
        0 4 4 14</rect></_>
    <_>
      <rect>
        0 6 3 12</rect></_>
    <_>
      <rect>
        0 8 3 13</rect></_>
    <_>
      <rect>
        0 11 2 3</rect></_>
    <_>
      <rect>
        0 14 3 6</rect></_>
    <_>
      <rect>
        0 14 4 6</rect></_>
    <_>
      <rect>
        0 15 3 4</rect></_>
    <_>
      <rect>
        0 15 16 7</rect></_>
    <_>
      <rect>
        0 17 16 10</rect></_>
    <_>
      <rect>
        0 18 4 3</rect></_>
    <_>
      <rect>
        0 19 3 4</rect></_>
    <_>
      <rect>
        0 19 4 7</rect></_>
    <_>
      <rect>
        0 20 12 8</rect></_>
    <_>
      <rect>
        0 21 3 5</rect></_>
    <_>
      <rect>
        0 21 4 7</rect></_>
    <_>
      <rect>
        0 22 14 5</rect></_>
    <_>
      <rect>
        0 24 9 3</rect></_>
    <_>
      <rect>
        0 24 15 4</rect></_>
    <_>
      <rect>
        0 26 3 2</rect></_>
    <_>
      <rect>
        0 27 4 2</rect></_>
    <_>
      <rect>
        0 27 7 5</rect></_>
    <_>
      <rect>
        1 11 3 6</rect></_>
    <_>
      <rect>
        1 12 15 9</rect></_>
    <_>
      <rect>
        1 13 3 4</rect></_>
    <_>
      <rect>
        1 25 12 2</rect></_>
    <_>
      <rect>
        1 28 1 1</rect></_>
    <_>
      <rect>
        2 0 15 15</rect></_>
    <_>
      <rect>
        2 13 7 10</rect></_>
    <_>
      <rect>
        2 18 12 6</rect></_>
    <_>
      <rect>
        2 18 15 5</rect></_>
    <_>
      <rect>
        2 19 3 5</rect></_>
    <_>
      <rect>
        2 20 4 6</rect></_>
    <_>
      <rect>
        2 21 4 5</rect></_>
    <_>
      <rect>
        2 21 15 3</rect></_>
    <_>
      <rect>
        2 22 3 3</rect></_>
    <_>
      <rect>
        2 26 11 4</rect></_>
    <_>
      <rect>
        3 7 8 14</rect></_>
    <_>
      <rect>
        3 10 15 9</rect></_>
    <_>
      <rect>
        3 14 2 4</rect></_>
    <_>
      <rect>
        3 19 15 5</rect></_>
    <_>
      <rect>
        3 21 9 5</rect></_>
    <_>
      <rect>
        3 22 15 6</rect></_>
    <_>
      <rect>
        3 33 8 4</rect></_>
    <_>
      <rect>
        3 35 9 5</rect></_>
    <_>
      <rect>
        4 10 2 6</rect></_>
    <_>
      <rect>
        4 10 6 13</rect></_>
    <_>
      <rect>
        4 11 2 3</rect></_>
    <_>
      <rect>
        4 11 2 4</rect></_>
    <_>
      <rect>
        4 11 3 7</rect></_>
    <_>
      <rect>
        4 14 6 12</rect></_>
    <_>
      <rect>
        4 16 3 4</rect></_>
    <_>
      <rect>
        4 18 2 5</rect></_>
    <_>
      <rect>
        4 21 6 6</rect></_>
    <_>
      <rect>
        4 22 4 7</rect></_>
    <_>
      <rect>
        4 24 12 4</rect></_>
    <_>
      <rect>
        5 6 14 12</rect></_>
    <_>
      <rect>
        5 24 15 4</rect></_>
    <_>
      <rect>
        5 27 1 1</rect></_>
    <_>
      <rect>
        6 16 1 1</rect></_>
    <_>
      <rect>
        6 20 12 5</rect></_>
    <_>
      <rect>
        8 11 13 10</rect></_>
    <_>
      <rect>
        10 14 10 8</rect></_>
    <_>
      <rect>
        11 23 9 3</rect></_>
    <_>
      <rect>
        11 23 13 6</rect></_>
    <_>
      <rect>
        13 4 10 13</rect></_>
    <_>
      <rect>
        13 19 12 5</rect></_>
    <_>
      <rect>
        15 24 11 3</rect></_>
    <_>
      <rect>
        15 25 7 3</rect></_>
    <_>
      <rect>
        15 28 3 1</rect></_>
    <_>
      <rect>
        15 29 3 1</rect></_>
    <_>
      <rect>
        16 22 11 5</rect></_>
    <_>
      <rect>
        16 23 11 4</rect></_>
    <_>
      <rect>
        16 24 7 5</rect></_>
    <_>
      <rect>
        16 27 2 1</rect></_>
    <_>
      <rect>
        17 21 5 7</rect></_>
    <_>
      <rect>
        17 27 6 2</rect></_>
    <_>
      <rect>
        17 27 10 3</rect></_>
    <_>
      <rect>
        17 28 5 2</rect></_>
    <_>
      <rect>
        17 29 2 1</rect></_>
    <_>
      <rect>
        17 29 3 1</rect></_>
    <_>
      <rect>
        17 31 2 1</rect></_>
    <_>
      <rect>
        18 27 5 2</rect></_>
    <_>
      <rect>
        18 28 3 1</rect></_>
    <_>
      <rect>
        19 26 2 1</rect></_>
    <_>
      <rect>
        19 27 4 1</rect></_>
    <_>
      <rect>
        19 27 4 2</rect></_>
    <_>
      <rect>
        19 30 3 1</rect></_>
    <_>
      <rect>
        20 25 9 3</rect></_>
    <_>
      <rect>
        20 27 3 1</rect></_>
    <_>
      <rect>
        20 28 3 1</rect></_>
    <_>
      <rect>
        20 28 6 2</rect></_>
    <_>
      <rect>
        20 29 3 1</rect></_>
    <_>
      <rect>
        20 29 5 2</rect></_>
    <_>
      <rect>
        20 32 3 1</rect></_>
    <_>
      <rect>
        20 33 3 1</rect></_>
    <_>
      <rect>
        21 14 9 12</rect></_>
    <_>
      <rect>
        21 28 2 1</rect></_>
    <_>
      <rect>
        21 29 3 1</rect></_>
    <_>
      <rect>
        21 30 1 1</rect></_>
    <_>
      <rect>
        21 30 3 2</rect></_>
    <_>
      <rect>
        21 31 2 1</rect></_>
    <_>
      <rect>
        21 32 2 1</rect></_>
    <_>
      <rect>
        21 33 1 1</rect></_>
    <_>
      <rect>
        22 24 9 2</rect></_>
    <_>
      <rect>
        22 28 3 1</rect></_>
    <_>
      <rect>
        22 28 5 2</rect></_>
    <_>
      <rect>
        22 29 1 1</rect></_>
    <_>
      <rect>
        22 31 2 1</rect></_>
    <_>
      <rect>
        23 28 1 1</rect></_>
    <_>
      <rect>
        23 28 3 1</rect></_>
    <_>
      <rect>
        23 29 1 1</rect></_>
    <_>
      <rect>
        23 29 3 1</rect></_>
    <_>
      <rect>
        23 31 1 1</rect></_>
    <_>
      <rect>
        23 32 1 1</rect></_>
    <_>
      <rect>
        24 11 8 13</rect></_>
    <_>
      <rect>
        24 28 1 1</rect></_>
    <_>
      <rect>
        24 30 1 1</rect></_>
    <_>
      <rect>
        24 31 1 1</rect></_>
    <_>
      <rect>
        24 32 1 1</rect></_>
    <_>
      <rect>
        24 33 1 1</rect></_>
    <_>
      <rect>
        25 29 1 1</rect></_>
    <_>
      <rect>
        26 28 2 1</rect></_>
    <_>
      <rect>
        26 31 2 1</rect></_>
    <_>
      <rect>
        26 33 1 1</rect></_>
    <_>
      <rect>
        27 21 7 3</rect></_>
    <_>
      <rect>
        27 26 6 3</rect></_>
    <_>
      <rect>
        28 24 7 2</rect></_>
    <_>
      <rect>
        29 29 7 3</rect></_>
    <_>
      <rect>
        29 31 7 4</rect></_>
    <_>
      <rect>
        31 28 6 3</rect></_>
    <_>
      <rect>
        32 5 6 6</rect></_>
    <_>
      <rect>
        32 22 6 3</rect></_>
    <_>
      <rect>
        32 27 6 4</rect></_>
    <_>
      <rect>
        34 10 4 13</rect></_>
    <_>
      <rect>
        34 26 5 3</rect></_>
    <_>
      <rect>
        35 8 5 9</rect></_>
    <_>
      <rect>
        35 11 5 4</rect></_>
    <_>
      <rect>
        37 14 4 4</rect></_>
    <_>
      <rect>
        37 20 3 7</rect></_>
    <_>
      <rect>
        38 12 3 4</rect></_>
    <_>
      <rect>
        38 13 4 5</rect></_>
    <_>
      <rect>
        38 17 4 4</rect></_>
    <_>
      <rect>
        38 17 4 8</rect></_>
    <_>
      <rect>
        38 21 3 2</rect></_>
    <_>
      <rect>
        38 29 4 2</rect></_>
    <_>
      <rect>
        40 7 3 6</rect></_>
    <_>
      <rect>
        40 16 3 3</rect></_>
    <_>
      <rect>
        40 16 3 4</rect></_>
    <_>
      <rect>
        40 16 3 7</rect></_>
    <_>
      <rect>
        40 21 3 8</rect></_>
    <_>
      <rect>
        41 6 3 12</rect></_>
    <_>
      <rect>
        41 9 3 7</rect></_>
    <_>
      <rect>
        41 10 2 4</rect></_>
    <_>
      <rect>
        41 19 3 3</rect></_>
    <_>
      <rect>
        41 20 3 3</rect></_>
    <_>
      <rect>
        41 21 3 4</rect></_>
    <_>
      <rect>
        41 27 3 3</rect></_>
    <_>
      <rect>
        41 31 1 1</rect></_>
    <_>
      <rect>
        42 17 2 3</rect></_>
    <_>
      <rect>
        42 24 2 3</rect></_>
    <_>
      <rect>
        43 19 1 1</rect></_>
    <_>
      <rect>
        43 29 2 3</rect></_>
    <_>
      <rect>
        44 11 2 7</rect></_>
    <_>
      <rect>
        44 14 2 5</rect></_>
    <_>
      <rect>
        44 23 2 4</rect></_>
    <_>
      <rect>
        45 32 1 1</rect></_></features></cascade>
</opencv_storage>
